digraph Tree {
node [shape=box, style="filled, rounded", color="black", fontname=helvetica] ;
edge [fontname=helvetica] ;
0 [label="age <= 34.5\ngini = 0.663\nsamples = 13\nvalue = [6, 4, 1, 2]\nclass = Chocolate", fillcolor="#e5813939"] ;
1 [label="gender <= 0.5\ngini = 0.562\nsamples = 11\nvalue = [6, 4, 0, 1]\nclass = Chocolate", fillcolor="#e5813949"] ;
0 -> 1 [labeldistance=2.5, labelangle=45, headlabel="True"] ;
2 [label="age <= 32.5\ngini = 0.32\nsamples = 5\nvalue = [4, 1, 0, 0]\nclass = Chocolate", fillcolor="#e58139bf"] ;
1 -> 2 ;
3 [label="gini = 0.0\nsamples = 4\nvalue = [4, 0, 0, 0]\nclass = Chocolate", fillcolor="#e58139ff"] ;
2 -> 3 ;
4 [label="gini = 0.0\nsamples = 1\nvalue = [0, 1, 0, 0]\nclass = Fried Chicken", fillcolor="#47e539ff"] ;
2 -> 4 ;
5 [label="age <= 27.5\ngini = 0.611\nsamples = 6\nvalue = [2, 3, 0, 1]\nclass = Fried Chicken", fillcolor="#47e53940"] ;
1 -> 5 ;
6 [label="age <= 21.5\ngini = 0.375\nsamples = 4\nvalue = [1, 3, 0, 0]\nclass = Fried Chicken", fillcolor="#47e539aa"] ;
5 -> 6 ;
7 [label="gini = 0.0\nsamples = 1\nvalue = [1, 0, 0, 0]\nclass = Chocolate", fillcolor="#e58139ff"] ;
6 -> 7 ;
8 [label="gini = 0.0\nsamples = 3\nvalue = [0, 3, 0, 0]\nclass = Fried Chicken", fillcolor="#47e539ff"] ;
6 -> 8 ;
9 [label="age <= 31.0\ngini = 0.5\nsamples = 2\nvalue = [1, 0, 0, 1]\nclass = Chocolate", fillcolor="#e5813900"] ;
5 -> 9 ;
10 [label="gini = 0.0\nsamples = 1\nvalue = [0, 0, 0, 1]\nclass = Quinoa", fillcolor="#d739e5ff"] ;
9 -> 10 ;
11 [label="gini = 0.0\nsamples = 1\nvalue = [1, 0, 0, 0]\nclass = Chocolate", fillcolor="#e58139ff"] ;
9 -> 11 ;
12 [label="age <= 36.0\ngini = 0.5\nsamples = 2\nvalue = [0, 0, 1, 1]\nclass = Fried Rice", fillcolor="#399de500"] ;
0 -> 12 [labeldistance=2.5, labelangle=-45, headlabel="False"] ;
13 [label="gini = 0.0\nsamples = 1\nvalue = [0, 0, 0, 1]\nclass = Quinoa", fillcolor="#d739e5ff"] ;
12 -> 13 ;
14 [label="gini = 0.0\nsamples = 1\nvalue = [0, 0, 1, 0]\nclass = Fried Rice", fillcolor="#399de5ff"] ;
12 -> 14 ;
}